digraph Tree {
node [shape=box, style="filled, rounded", color="black", fontname=helvetica] ;
edge [fontname=helvetica] ;
0 [label="prob_exp <= 0.85\ngini = 0.5\nsamples = 1417\nvalue = [702, 715]\nclass = wet", fillcolor="#fbfdff"] ;
1 [label="last_pos <= 27.0\ngini = 0.37\nsamples = 723\nvalue = [548, 175]\nclass = dry", fillcolor="#eda978"] ;
0 -> 1 [labeldistance=2.5, labelangle=45, headlabel="True"] ;
2 [label="last_neg <= 22.5\ngini = 0.5\nsamples = 265\nvalue = [145, 120]\nclass = dry", fillcolor="#fbe9dd"] ;
1 -> 2 ;
3 [label="last_neg <= 3.5\ngini = 0.27\nsamples = 81\nvalue = [68, 13]\nclass = dry", fillcolor="#ea995f"] ;
2 -> 3 ;
4 [label="gini = 0.0\nsamples = 2\nvalue = [0, 2]\nclass = wet", fillcolor="#399de5"] ;
3 -> 4 ;
5 [label="prob_exp <= 0.5\ngini = 0.24\nsamples = 79\nvalue = [68, 11]\nclass = dry", fillcolor="#e99559"] ;
3 -> 5 ;
6 [label="gini = 0.0\nsamples = 2\nvalue = [0, 2]\nclass = wet", fillcolor="#399de5"] ;
5 -> 6 ;
7 [label="gini = 0.21\nsamples = 77\nvalue = [68, 9]\nclass = dry", fillcolor="#e89253"] ;
5 -> 7 ;
8 [label="rain_5 <= 0.01\ngini = 0.49\nsamples = 184\nvalue = [77, 107]\nclass = wet", fillcolor="#c7e4f8"] ;
2 -> 8 ;
9 [label="last_pos <= 14.5\ngini = 0.5\nsamples = 128\nvalue = [69, 59]\nclass = dry", fillcolor="#fbede2"] ;
8 -> 9 ;
10 [label="gini = 0.49\nsamples = 75\nvalue = [32, 43]\nclass = wet", fillcolor="#cce6f8"] ;
9 -> 10 ;
11 [label="gini = 0.42\nsamples = 53\nvalue = [37, 16]\nclass = dry", fillcolor="#f0b78f"] ;
9 -> 11 ;
12 [label="prob_exp <= 0.83\ngini = 0.24\nsamples = 56\nvalue = [8, 48]\nclass = wet", fillcolor="#5aade9"] ;
8 -> 12 ;
13 [label="gini = 0.14\nsamples = 51\nvalue = [4, 47]\nclass = wet", fillcolor="#4aa5e7"] ;
12 -> 13 ;
14 [label="gini = 0.32\nsamples = 5\nvalue = [4, 1]\nclass = dry", fillcolor="#eca06a"] ;
12 -> 14 ;
15 [label="prob_exp <= 0.56\ngini = 0.21\nsamples = 458\nvalue = [403, 55]\nclass = dry", fillcolor="#e99254"] ;
1 -> 15 ;
16 [label="rain_5 <= 2.73\ngini = 0.06\nsamples = 275\nvalue = [266, 9]\nclass = dry", fillcolor="#e68540"] ;
15 -> 16 ;
17 [label="last_pos <= 628.5\ngini = 0.06\nsamples = 274\nvalue = [266, 8]\nclass = dry", fillcolor="#e6853f"] ;
16 -> 17 ;
18 [label="gini = 0.02\nsamples = 174\nvalue = [172, 2]\nclass = dry", fillcolor="#e5823b"] ;
17 -> 18 ;
19 [label="gini = 0.11\nsamples = 100\nvalue = [94, 6]\nclass = dry", fillcolor="#e78946"] ;
17 -> 19 ;
20 [label="gini = 0.0\nsamples = 1\nvalue = [0, 1]\nclass = wet", fillcolor="#399de5"] ;
16 -> 20 ;
21 [label="last_pos <= 240.5\ngini = 0.38\nsamples = 183\nvalue = [137, 46]\nclass = dry", fillcolor="#eeab7b"] ;
15 -> 21 ;
22 [label="last_neg <= 178.5\ngini = 0.31\nsamples = 148\nvalue = [120, 28]\nclass = dry", fillcolor="#eb9e67"] ;
21 -> 22 ;
23 [label="gini = 0.2\nsamples = 105\nvalue = [93, 12]\nclass = dry", fillcolor="#e89153"] ;
22 -> 23 ;
24 [label="gini = 0.47\nsamples = 43\nvalue = [27, 16]\nclass = dry", fillcolor="#f4ccae"] ;
22 -> 24 ;
25 [label="last_neg <= 295.0\ngini = 0.5\nsamples = 35\nvalue = [17, 18]\nclass = wet", fillcolor="#f4fafe"] ;
21 -> 25 ;
26 [label="gini = 0.0\nsamples = 10\nvalue = [0, 10]\nclass = wet", fillcolor="#399de5"] ;
25 -> 26 ;
27 [label="gini = 0.44\nsamples = 25\nvalue = [17, 8]\nclass = dry", fillcolor="#f1bc96"] ;
25 -> 27 ;
28 [label="last_pos <= 30.5\ngini = 0.35\nsamples = 694\nvalue = [154, 540]\nclass = wet", fillcolor="#71b9ec"] ;
0 -> 28 [labeldistance=2.5, labelangle=-45, headlabel="False"] ;
29 [label="prob_exp <= 0.87\ngini = 0.15\nsamples = 449\nvalue = [36, 413]\nclass = wet", fillcolor="#4aa6e7"] ;
28 -> 29 ;
30 [label="last_pos <= 10.5\ngini = 0.48\nsamples = 37\nvalue = [15, 22]\nclass = wet", fillcolor="#c0e0f7"] ;
29 -> 30 ;
31 [label="last_pos <= 8.5\ngini = 0.49\nsamples = 26\nvalue = [15, 11]\nclass = dry", fillcolor="#f8ddca"] ;
30 -> 31 ;
32 [label="gini = 0.0\nsamples = 6\nvalue = [0, 6]\nclass = wet", fillcolor="#399de5"] ;
31 -> 32 ;
33 [label="gini = 0.38\nsamples = 20\nvalue = [15, 5]\nclass = dry", fillcolor="#eeab7b"] ;
31 -> 33 ;
34 [label="gini = 0.0\nsamples = 11\nvalue = [0, 11]\nclass = wet", fillcolor="#399de5"] ;
30 -> 34 ;
35 [label="prob_exp <= 0.98\ngini = 0.1\nsamples = 412\nvalue = [21, 391]\nclass = wet", fillcolor="#44a2e6"] ;
29 -> 35 ;
36 [label="last_neg <= 573.5\ngini = 0.16\nsamples = 233\nvalue = [21, 212]\nclass = wet", fillcolor="#4da7e8"] ;
35 -> 36 ;
37 [label="gini = 0.06\nsamples = 129\nvalue = [4, 125]\nclass = wet", fillcolor="#3fa0e6"] ;
36 -> 37 ;
38 [label="gini = 0.27\nsamples = 104\nvalue = [17, 87]\nclass = wet", fillcolor="#60b0ea"] ;
36 -> 38 ;
39 [label="gini = 0.0\nsamples = 179\nvalue = [0, 179]\nclass = wet", fillcolor="#399de5"] ;
35 -> 39 ;
40 [label="prob_exp <= 0.94\ngini = 0.5\nsamples = 245\nvalue = [118, 127]\nclass = wet", fillcolor="#f1f8fd"] ;
28 -> 40 ;
41 [label="rain_5 <= 0.12\ngini = 0.43\nsamples = 164\nvalue = [113, 51]\nclass = dry", fillcolor="#f1ba92"] ;
40 -> 41 ;
42 [label="rain_5 <= 0.0\ngini = 0.33\nsamples = 133\nvalue = [105, 28]\nclass = dry", fillcolor="#eca36e"] ;
41 -> 42 ;
43 [label="gini = 0.27\nsamples = 100\nvalue = [84, 16]\nclass = dry", fillcolor="#ea995f"] ;
42 -> 43 ;
44 [label="gini = 0.46\nsamples = 33\nvalue = [21, 12]\nclass = dry", fillcolor="#f4c9aa"] ;
42 -> 44 ;
45 [label="last_pos <= 223.5\ngini = 0.38\nsamples = 31\nvalue = [8, 23]\nclass = wet", fillcolor="#7ebfee"] ;
41 -> 45 ;
46 [label="gini = 0.0\nsamples = 14\nvalue = [0, 14]\nclass = wet", fillcolor="#399de5"] ;
45 -> 46 ;
47 [label="gini = 0.5\nsamples = 17\nvalue = [8, 9]\nclass = wet", fillcolor="#e9f4fc"] ;
45 -> 47 ;
48 [label="prob_exp <= 0.96\ngini = 0.12\nsamples = 81\nvalue = [5, 76]\nclass = wet", fillcolor="#46a3e7"] ;
40 -> 48 ;
49 [label="last_neg <= 845.0\ngini = 0.39\nsamples = 19\nvalue = [5, 14]\nclass = wet", fillcolor="#80c0ee"] ;
48 -> 49 ;
50 [label="gini = 0.0\nsamples = 8\nvalue = [0, 8]\nclass = wet", fillcolor="#399de5"] ;
49 -> 50 ;
51 [label="gini = 0.5\nsamples = 11\nvalue = [5, 6]\nclass = wet", fillcolor="#deeffb"] ;
49 -> 51 ;
52 [label="gini = 0.0\nsamples = 62\nvalue = [0, 62]\nclass = wet", fillcolor="#399de5"] ;
48 -> 52 ;
}