digraph Tree {
node [shape=box, style="filled, rounded", color="black", fontname=helvetica] ;
edge [fontname=helvetica] ;
0 [label="last_pos <= 644.0\ngini = 0.16\nsamples = 15\nvalue = [2, 21]\nclass = wet", fillcolor="#4ca6e7"] ;
1 [label="last_pos <= 4.5\ngini = 0.09\nsamples = 13\nvalue = [1, 20]\nclass = wet", fillcolor="#43a2e6"] ;
0 -> 1 [labeldistance=2.5, labelangle=45, headlabel="True"] ;
2 [label="last_pos <= 2.0\ngini = 0.24\nsamples = 3\nvalue = [1, 6]\nclass = wet", fillcolor="#5aade9"] ;
1 -> 2 ;
3 [label="gini = 0.0\nsamples = 1\nvalue = [0, 3]\nclass = wet", fillcolor="#399de5"] ;
2 -> 3 ;
4 [label="last_neg <= 64.5\ngini = 0.38\nsamples = 2\nvalue = [1, 3]\nclass = wet", fillcolor="#7bbeee"] ;
2 -> 4 ;
5 [label="gini = 0.0\nsamples = 1\nvalue = [1, 0]\nclass = dry", fillcolor="#e58139"] ;
4 -> 5 ;
6 [label="gini = 0.0\nsamples = 1\nvalue = [0, 3]\nclass = wet", fillcolor="#399de5"] ;
4 -> 6 ;
7 [label="gini = 0.0\nsamples = 10\nvalue = [0, 14]\nclass = wet", fillcolor="#399de5"] ;
1 -> 7 ;
8 [label="rain_tot_5 <= 15.05\ngini = 0.5\nsamples = 2\nvalue = [1, 1]\nclass = dry", fillcolor="#ffffff"] ;
0 -> 8 [labeldistance=2.5, labelangle=-45, headlabel="False"] ;
9 [label="gini = 0.0\nsamples = 1\nvalue = [1, 0]\nclass = dry", fillcolor="#e58139"] ;
8 -> 9 ;
10 [label="gini = 0.0\nsamples = 1\nvalue = [0, 1]\nclass = wet", fillcolor="#399de5"] ;
8 -> 10 ;
}