digraph Tree {
node [shape=box, style="filled, rounded", color="black", fontname=helvetica] ;
edge [fontname=helvetica] ;
0 [label="last_neg <= 47.5\ngini = 0.25\nsamples = 712\nvalue = [165, 959]\nclass = wet", fillcolor="#5baee9"] ;
1 [label="rain_5 <= 0.17\ngini = 0.49\nsamples = 82\nvalue = [73, 56]\nclass = dry", fillcolor="#f9e2d1"] ;
0 -> 1 [labeldistance=2.5, labelangle=45, headlabel="True"] ;
2 [label="last_pos <= 103.0\ngini = 0.5\nsamples = 66\nvalue = [54, 50]\nclass = dry", fillcolor="#fdf6f0"] ;
1 -> 2 ;
3 [label="last_neg <= 6.5\ngini = 0.45\nsamples = 47\nvalue = [25, 48]\nclass = wet", fillcolor="#a0d0f3"] ;
2 -> 3 ;
4 [label="gini = 0.14\nsamples = 11\nvalue = [1, 12]\nclass = wet", fillcolor="#49a5e7"] ;
3 -> 4 ;
5 [label="gini = 0.48\nsamples = 36\nvalue = [24, 36]\nclass = wet", fillcolor="#bddef6"] ;
3 -> 5 ;
6 [label="rain_5 <= 0.0\ngini = 0.12\nsamples = 19\nvalue = [29, 2]\nclass = dry", fillcolor="#e78a47"] ;
2 -> 6 ;
7 [label="gini = 0.24\nsamples = 9\nvalue = [12, 2]\nclass = dry", fillcolor="#e9965a"] ;
6 -> 7 ;
8 [label="gini = 0.0\nsamples = 10\nvalue = [17, 0]\nclass = dry", fillcolor="#e58139"] ;
6 -> 8 ;
9 [label="last_pos <= 150.0\ngini = 0.36\nsamples = 16\nvalue = [19, 6]\nclass = dry", fillcolor="#eda978"] ;
1 -> 9 ;
10 [label="rain_5 <= 1.26\ngini = 0.47\nsamples = 5\nvalue = [3, 5]\nclass = wet", fillcolor="#b0d8f5"] ;
9 -> 10 ;
11 [label="gini = 0.28\nsamples = 4\nvalue = [1, 5]\nclass = wet", fillcolor="#61b1ea"] ;
10 -> 11 ;
12 [label="gini = 0.0\nsamples = 1\nvalue = [2, 0]\nclass = dry", fillcolor="#e58139"] ;
10 -> 12 ;
13 [label="last_pos <= 301.0\ngini = 0.11\nsamples = 11\nvalue = [16, 1]\nclass = dry", fillcolor="#e78945"] ;
9 -> 13 ;
14 [label="gini = 0.0\nsamples = 6\nvalue = [11, 0]\nclass = dry", fillcolor="#e58139"] ;
13 -> 14 ;
15 [label="gini = 0.28\nsamples = 5\nvalue = [5, 1]\nclass = dry", fillcolor="#ea9a61"] ;
13 -> 15 ;
16 [label="last_pos <= 67.5\ngini = 0.17\nsamples = 630\nvalue = [92, 903]\nclass = wet", fillcolor="#4da7e8"] ;
0 -> 16 [labeldistance=2.5, labelangle=-45, headlabel="False"] ;
17 [label="rain_5 <= 0.01\ngini = 0.07\nsamples = 485\nvalue = [28, 722]\nclass = wet", fillcolor="#41a1e6"] ;
16 -> 17 ;
18 [label="last_neg <= 186.0\ngini = 0.1\nsamples = 275\nvalue = [23, 395]\nclass = wet", fillcolor="#45a3e7"] ;
17 -> 18 ;
19 [label="gini = 0.23\nsamples = 45\nvalue = [9, 58]\nclass = wet", fillcolor="#58ace9"] ;
18 -> 19 ;
20 [label="gini = 0.08\nsamples = 230\nvalue = [14, 337]\nclass = wet", fillcolor="#41a1e6"] ;
18 -> 20 ;
21 [label="last_neg <= 100.0\ngini = 0.03\nsamples = 210\nvalue = [5, 327]\nclass = wet", fillcolor="#3c9ee5"] ;
17 -> 21 ;
22 [label="gini = 0.11\nsamples = 24\nvalue = [2, 32]\nclass = wet", fillcolor="#45a3e7"] ;
21 -> 22 ;
23 [label="gini = 0.02\nsamples = 186\nvalue = [3, 295]\nclass = wet", fillcolor="#3b9ee5"] ;
21 -> 23 ;
24 [label="last_neg <= 178.5\ngini = 0.39\nsamples = 145\nvalue = [64, 181]\nclass = wet", fillcolor="#7fc0ee"] ;
16 -> 24 ;
25 [label="rain_5 <= 0.07\ngini = 0.49\nsamples = 30\nvalue = [22, 30]\nclass = wet", fillcolor="#cae5f8"] ;
24 -> 25 ;
26 [label="gini = 0.4\nsamples = 13\nvalue = [18, 7]\nclass = dry", fillcolor="#efb286"] ;
25 -> 26 ;
27 [label="gini = 0.25\nsamples = 17\nvalue = [4, 23]\nclass = wet", fillcolor="#5baeea"] ;
25 -> 27 ;
28 [label="rain_5 <= 0.0\ngini = 0.34\nsamples = 115\nvalue = [42, 151]\nclass = wet", fillcolor="#70b8ec"] ;
24 -> 28 ;
29 [label="gini = 0.46\nsamples = 41\nvalue = [25, 45]\nclass = wet", fillcolor="#a7d3f3"] ;
28 -> 29 ;
30 [label="gini = 0.24\nsamples = 74\nvalue = [17, 106]\nclass = wet", fillcolor="#59ade9"] ;
28 -> 30 ;
}